{"learner":{"attributes":{"best_iteration":"49","best_ntree_limit":"50","scikit_learn":"{\"n_estimators\": 50, \"objective\": \"reg:squarederror\", \"max_depth\": 2, \"max_leaves\": null, \"max_bin\": null, \"grow_policy\": null, \"learning_rate\": 0.02, \"verbosity\": null, \"booster\": null, \"tree_method\": null, \"gamma\": null, \"min_child_weight\": null, \"max_delta_step\": null, \"subsample\": 0.8, \"sampling_method\": null, \"colsample_bytree\": 0.8, \"colsample_bylevel\": null, \"colsample_bynode\": null, \"reg_alpha\": null, \"reg_lambda\": 2.0, \"scale_pos_weight\": null, \"base_score\": null, \"missing\": NaN, \"num_parallel_tree\": null, \"random_state\": 42, \"n_jobs\": -1, \"monotone_constraints\": null, \"interaction_constraints\": null, \"importance_type\": null, \"gpu_id\": null, \"validate_parameters\": null, \"predictor\": null, \"enable_categorical\": false, \"feature_types\": null, \"max_cat_to_onehot\": null, \"max_cat_threshold\": null, \"eval_metric\": null, \"early_stopping_rounds\": null, \"callbacks\": null, \"_estimator_type\": \"regressor\"}"},"feature_names":[],"feature_types":[],"gradient_booster":{"model":{"gbtree_model_param":{"num_parallel_tree":"1","num_trees":"50","size_leaf_vector":"0"},"tree_info":[0,0,0,0,0,0,0,0,0,0,0,0,0,0,0,0,0,0,0,0,0,0,0,0,0,0,0,0,0,0,0,0,0,0,0,0,0,0,0,0,0,0,0,0,0,0,0,0,0,0],"trees":[{"base_weights":[-7.0708156E-2,-3.7305975E-1,6.6756797E-1,-4.5220235E-1,-1.7349313E-1,2.820033E-1,9.8776287E-1],"categories":[],"categories_nodes":[],"categories_segments":[],"categories_sizes":[],"default_left":[1,1,1,0,0,0,0],"id":0,"left_children":[1,3,5,-1,-1,-1,-1],"loss_changes":[1.5311106E3,7.669769E1,2.4549042E2,0E0,0E0,0E0,0E0],"parents":[2147483647,0,0,1,1,2,2],"right_children":[2,4,6,-1,-1,-1,-1],"split_conditions":[6.178456E-1,-4.0180835E-1,1.4420171E0,-9.0440465E-3,-3.4698625E-3,5.640066E-3,1.9755257E-2],"split_indices":[10,10,10,0,0,0,0],"split_type":[0,0,0,0,0,0,0],"sum_hessian":[6.855E3,4.864E3,1.991E3,3.481E3,1.383E3,9.05E2,1.086E3],"tree_param":{"num_deleted":"0","num_feature":"254","num_nodes":"7","size_leaf_vector":"0"}},{"base_weights":[-7.238634E-2,-3.6594617E-1,6.477055E-1,-4.425626E-1,-1.6742167E-1,2.7796975E-1,9.6956927E-1],"categories":[],"categories_nodes":[],"categories_segments":[],"categories_sizes":[],"default_left":[1,1,1,0,0,0,0],"id":1,"left_children":[1,3,5,-1,-1,-1,-1],"loss_changes":[1.4510325E3,7.401697E1,2.3604199E2,0E0,0E0,0E0,0E0],"parents":[2147483647,0,0,1,1,2,2],"right_children":[2,4,6,-1,-1,-1,-1],"split_conditions":[6.3224334E-1,-3.8500476E-1,1.3223699E0,-8.851252E-3,-3.3484334E-3,5.5593946E-3,1.9391384E-2],"split_indices":[10,10,76,0,0,0,0],"split_type":[0,0,0,0,0,0,0],"sum_hessian":[6.86E3,4.874E3,1.986E3,3.515E3,1.359E3,9.26E2,1.06E3],"tree_param":{"num_deleted":"0","num_feature":"254","num_nodes":"7","size_leaf_vector":"0"}},{"base_weights":[-7.3129155E-2,-3.5634723E-1,6.3804746E-1,-4.3487957E-1,-1.6613127E-1,2.6859447E-1,9.482713E-1],"categories":[],"categories_nodes":[],"categories_segments":[],"categories_sizes":[],"default_left":[1,1,1,0,0,0,0],"id":2,"left_children":[1,3,5,-1,-1,-1,-1],"loss_changes":[1.3761401E3,7.284308E1,2.2252777E2,0E0,0E0,0E0,0E0],"parents":[2147483647,0,0,1,1,2,2],"right_children":[2,4,6,-1,-1,-1,-1],"split_conditions":[2.1907155E-1,-3.8011858E-1,1.2820375E0,-8.697591E-3,-3.3226253E-3,5.3718896E-3,1.8965425E-2],"split_indices":[76,73,76,0,0,0,0],"split_type":[0,0,0,0,0,0,0],"sum_hessian":[6.828E3,4.884E3,1.944E3,3.455E3,1.429E3,8.89E2,1.055E3],"tree_param":{"num_deleted":"0","num_feature":"254","num_nodes":"7","size_leaf_vector":"0"}},{"base_weights":[-7.292732E-2,-3.5069597E-1,6.153582E-1,-4.2380542E-1,-1.5950865E-1,2.6558247E-1,9.3015003E-1],"categories":[],"categories_nodes":[],"categories_segments":[],"categories_sizes":[],"default_left":[1,1,1,0,0,0,0],"id":3,"left_children":[1,3,5,-1,-1,-1,-1],"loss_changes":[1.3085134E3,6.801953E1,2.1619562E2,0E0,0E0,0E0,0E0],"parents":[2147483647,0,0,1,1,2,2],"right_children":[2,4,6,-1,-1,-1,-1],"split_conditions":[1.6467077E-1,-5.2984226E-1,1.3556453E0,-8.476108E-3,-3.1901728E-3,5.3116493E-3,1.8603E-2],"split_indices":[76,76,76,0,0,0,0],"split_type":[0,0,0,0,0,0,0],"sum_hessian":[6.84E3,4.874E3,1.966E3,3.524E3,1.35E3,9.33E2,1.033E3],"tree_param":{"num_deleted":"0","num_feature":"254","num_nodes":"7","size_leaf_vector":"0"}},{"base_weights":[-7.197713E-2,-3.4425947E-1,6.0789704E-1,-4.1733754E-1,-1.601226E-1,2.581544E-1,9.119636E-1],"categories":[],"categories_nodes":[],"categories_segments":[],"categories_sizes":[],"default_left":[1,1,1,0,0,0,0],"id":4,"left_children":[1,3,5,-1,-1,-1,-1],"loss_changes":[1.2655132E3,6.5546875E1,2.074336E2,0E0,0E0,0E0,0E0],"parents":[2147483647,0,0,1,1,2,2],"right_children":[2,4,6,-1,-1,-1,-1],"split_conditions":[5.8164525E-1,-4.0861642E-1,1.2865574E0,-8.34675E-3,-3.202452E-3,5.1630875E-3,1.823927E-2],"split_indices":[10,10,76,0,0,0,0],"split_type":[0,0,0,0,0,0,0],"sum_hessian":[6.832E3,4.879E3,1.953E3,3.491E3,1.388E3,9.1E2,1.043E3],"tree_param":{"num_deleted":"0","num_feature":"254","num_nodes":"7","size_leaf_vector":"0"}},{"base_weights":[-6.7848496E-2,-3.3736944E-1,5.9469014E-1,-4.0982082E-1,-1.6027848E-1,2.4429984E-1,8.836911E-1],"categories":[],"categories_nodes":[],"categories_segments":[],"categories_sizes":[],"default_left":[1,1,1,0,0,0,0],"id":5,"left_children":[1,3,5,-1,-1,-1,-1],"loss_changes":[1.2189496E3,6.2122192E1,1.9946167E2,0E0,0E0,0E0,0E0],"parents":[2147483647,0,0,1,1,2,2],"right_children":[2,4,6,-1,-1,-1,-1],"split_conditions":[5.932667E-1,-4.399368E-1,1.1503805E0,-8.196416E-3,-3.2055697E-3,4.8859967E-3,1.767382E-2],"split_indices":[10,10,76,0,0,0,0],"split_type":[0,0,0,0,0,0,0],"sum_hessian":[6.822E3,4.85E3,1.972E3,3.44E3,1.41E3,8.93E2,1.079E3],"tree_param":{"num_deleted":"0","num_feature":"254","num_nodes":"7","size_leaf_vector":"0"}},{"base_weights":[-6.873309E-2,-3.3107832E-1,5.859255E-1,-4.0153256E-1,-1.5635186E-1,2.530083E-1,8.7714183E-1],"categories":[],"categories_nodes":[],"categories_segments":[],"categories_sizes":[],"default_left":[1,1,1,0,0,0,0],"id":6,"left_children":[1,3,5,-1,-1,-1,-1],"loss_changes":[1.1735887E3,5.9923645E1,1.8909528E2,0E0,0E0,0E0,0E0],"parents":[2147483647,0,0,1,1,2,2],"right_children":[2,4,6,-1,-1,-1,-1],"split_conditions":[1.6056126E-1,-3.9789158E-1,1.3953512E0,-8.030651E-3,-3.1270373E-3,5.060166E-3,1.7542837E-2],"split_indices":[76,73,76,0,0,0,0],"split_type":[0,0,0,0,0,0,0],"sum_hessian":[6.829E3,4.876E3,1.953E3,3.473E3,1.403E3,9.13E2,1.04E3],"tree_param":{"num_deleted":"0","num_feature":"254","num_nodes":"7","size_leaf_vector":"0"}},{"base_weights":[-6.724761E-2,-3.2864857E-1,5.617092E-1,-3.934046E-1,-1.6277923E-1,2.2903985E-1,8.495505E-1],"categories":[],"categories_nodes":[],"categories_segments":[],"categories_sizes":[],"default_left":[1,1,1,0,0,0,0],"id":7,"left_children":[1,3,5,-1,-1,-1,-1],"loss_changes":[1.1121091E3,5.1192566E1,1.8978223E2,0E0,0E0,0E0,0E0],"parents":[2147483647,0,0,1,1,2,2],"right_children":[2,4,6,-1,-1,-1,-1],"split_conditions":[5.0940955E-1,-4.399368E-1,1.141511E0,-7.868092E-3,-3.2555845E-3,4.5807967E-3,1.699101E-2],"split_indices":[10,10,76,0,0,0,0],"split_type":[0,0,0,0,0,0,0],"sum_hessian":[6.76E3,4.776E3,1.984E3,3.433E3,1.343E3,9.22E2,1.062E3],"tree_param":{"num_deleted":"0","num_feature":"254","num_nodes":"7","size_leaf_vector":"0"}},{"base_weights":[-6.672846E-2,-3.1635404E-1,5.6831676E-1,-3.8330942E-1,-1.4067242E-1,2.4261883E-1,8.434678E-1],"categories":[],"categories_nodes":[],"categories_segments":[],"categories_sizes":[],"default_left":[1,1,1,0,0,0,0],"id":8,"left_children":[1,3,5,-1,-1,-1,-1],"loss_changes":[1.0859287E3,5.772995E1,1.7281866E2,0E0,0E0,0E0,0E0],"parents":[2147483647,0,0,1,1,2,2],"right_children":[2,4,6,-1,-1,-1,-1],"split_conditions":[2.1081246E-1,-3.4100524E-1,1.3953512E0,-7.6661883E-3,-2.8134482E-3,4.8523764E-3,1.6869355E-2],"split_indices":[76,10,76,0,0,0,0],"split_type":[0,0,0,0,0,0,0],"sum_hessian":[6.846E3,4.915E3,1.931E3,3.557E3,1.358E3,8.86E2,1.045E3],"tree_param":{"num_deleted":"0","num_feature":"254","num_nodes":"7","size_leaf_vector":"0"}},{"base_weights":[-6.737393E-2,-3.1688285E-1,5.378242E-1,-3.7857428E-1,-1.5980925E-1,2.1284132E-1,8.1345606E-1],"categories":[],"categories_nodes":[],"categories_segments":[],"categories_sizes":[],"default_left":[1,1,1,0,0,0,0],"id":9,"left_children":[1,3,5,-1,-1,-1,-1],"loss_changes":[1.0350089E3,4.690503E1,1.7889453E2,0E0,0E0,0E0,0E0],"parents":[2147483647,0,0,1,1,2,2],"right_children":[2,4,6,-1,-1,-1,-1],"split_conditions":[4.9197778E-1,-4.7066754E-1,1.3134978E0,-7.5714854E-3,-3.1961848E-3,4.2568264E-3,1.6269121E-2],"split_indices":[10,10,10,0,0,0,0],"split_type":[0,0,0,0,0,0,0],"sum_hessian":[6.85E3,4.851E3,1.999E3,3.481E3,1.37E3,9.19E2,1.08E3],"tree_param":{"num_deleted":"0","num_feature":"254","num_nodes":"7","size_leaf_vector":"0"}},{"base_weights":[-6.511787E-2,-3.1049284E-1,5.222711E-1,-3.708801E-1,-1.5495752E-1,2.1226877E-1,7.9691947E-1],"categories":[],"categories_nodes":[],"categories_segments":[],"categories_sizes":[],"default_left":[1,1,1,0,0,0,0],"id":10,"left_children":[1,3,5,-1,-1,-1,-1],"loss_changes":[9.9050116E2,4.540985E1,1.7207343E2,0E0,0E0,0E0,0E0],"parents":[2147483647,0,0,1,1,2,2],"right_children":[2,4,6,-1,-1,-1,-1],"split_conditions":[4.8009714E-1,-4.4156447E-1,1.3412724E0,-7.417602E-3,-3.0991503E-3,4.2453753E-3,1.5938388E-2],"split_indices":[10,10,10,0,0,0,0],"split_type":[0,0,0,0,0,0,0],"sum_hessian":[6.868E3,4.845E3,2.023E3,3.488E3,1.357E3,9.52E2,1.071E3],"tree_param":{"num_deleted":"0","num_feature":"254","num_nodes":"7","size_leaf_vector":"0"}},{"base_weights":[-6.4940475E-2,-3.041535E-1,5.109766E-1,-3.6363253E-1,-1.5482073E-1,2.245483E-1,7.992491E-1],"categories":[],"categories_nodes":[],"categories_segments":[],"categories_sizes":[],"default_left":[1,1,1,0,0,0,0],"id":11,"left_children":[1,3,5,-1,-1,-1,-1],"loss_changes":[9.4167194E2,4.277939E1,1.652752E2,0E0,0E0,0E0,0E0],"parents":[2147483647,0,0,1,1,2,2],"right_children":[2,4,6,-1,-1,-1,-1],"split_conditions":[5.5969298E-2,-4.3739986E-1,1.4822043E0,-7.2726505E-3,-3.0964145E-3,4.490966E-3,1.5984982E-2],"split_indices":[76,73,76,0,0,0,0],"split_type":[0,0,0,0,0,0,0],"sum_hessian":[6.831E3,4.827E3,2.004E3,3.45E3,1.377E3,1.007E3,9.97E2],"tree_param":{"num_deleted":"0","num_feature":"254","num_nodes":"7","size_leaf_vector":"0"}},{"base_weights":[-6.11853E-2,-2.9669797E-1,5.0755006E-1,-3.5298502E-1,-1.3854684E-1,2.2437896E-1,7.8327507E-1],"categories":[],"categories_nodes":[],"categories_segments":[],"categories_sizes":[],"default_left":[1,1,1,0,0,0,0],"id":12,"left_children":[1,3,5,-1,-1,-1,-1],"loss_changes":[9.1340015E2,4.2826935E1,1.5556897E2,0E0,0E0,0E0,0E0],"parents":[2147483647,0,0,1,1,2,2],"right_children":[2,4,6,-1,-1,-1,-1],"split_conditions":[8.212882E-2,-3.28018E-1,1.5101185E0,-7.0597003E-3,-2.7709368E-3,4.487579E-3,1.5665501E-2],"split_indices":[76,10,76,0,0,0,0],"split_type":[0,0,0,0,0,0,0],"sum_hessian":[6.815E3,4.82E3,1.995E3,3.553E3,1.267E3,9.86E2,1.009E3],"tree_param":{"num_deleted":"0","num_feature":"254","num_nodes":"7","size_leaf_vector":"0"}},{"base_weights":[-5.9081722E-2,-2.8607476E-1,5.114345E-1,-3.4572393E-1,-1.2425926E-1,2.0297398E-1,7.490765E-1],"categories":[],"categories_nodes":[],"categories_segments":[],"categories_sizes":[],"default_left":[1,1,1,0,0,0,0],"id":13,"left_children":[1,3,5,-1,-1,-1,-1],"loss_changes":[8.8583545E2,4.714212E1,1.424172E2,0E0,0E0,0E0,0E0],"parents":[2147483647,0,0,1,1,2,2],"right_children":[2,4,6,-1,-1,-1,-1],"split_conditions":[2.4448197E-1,-3.212868E-1,1.0973461E0,-6.9144783E-3,-2.4851852E-3,4.0594796E-3,1.498153E-2],"split_indices":[76,10,76,0,0,0,0],"split_type":[0,0,0,0,0,0,0],"sum_hessian":[6.836E3,4.891E3,1.945E3,3.572E3,1.319E3,8.48E2,1.097E3],"tree_param":{"num_deleted":"0","num_feature":"254","num_nodes":"7","size_leaf_vector":"0"}},{"base_weights":[-5.5998016E-2,-2.8763026E-1,4.8278967E-1,-3.4267208E-1,-1.4729366E-1,1.9392669E-1,7.373798E-1],"categories":[],"categories_nodes":[],"categories_segments":[],"categories_sizes":[],"default_left":[1,1,1,0,0,0,0],"id":14,"left_children":[1,3,5,-1,-1,-1,-1],"loss_changes":[8.650211E2,3.733914E1,1.5297485E2,0E0,0E0,0E0,0E0],"parents":[2147483647,0,0,1,1,2,2],"right_children":[2,4,6,-1,-1,-1,-1],"split_conditions":[2.0834021E-2,-4.5625395E-1,1.1162035E0,-6.8534412E-3,-2.9458732E-3,3.8785338E-3,1.4747595E-2],"split_indices":[76,73,76,0,0,0,0],"split_type":[0,0,0,0,0,0,0],"sum_hessian":[6.927E3,4.845E3,2.082E3,3.478E3,1.367E3,9.77E2,1.105E3],"tree_param":{"num_deleted":"0","num_feature":"254","num_nodes":"7","size_leaf_vector":"0"}},{"base_weights":[-5.8356922E-2,-2.819529E-1,4.742034E-1,-3.3668512E-1,-1.4524883E-1,2.063982E-1,7.394961E-1],"categories":[],"categories_nodes":[],"categories_segments":[],"categories_sizes":[],"default_left":[1,1,1,0,0,0,0],"id":15,"left_children":[1,3,5,-1,-1,-1,-1],"loss_changes":[8.1583496E2,3.6003418E1,1.436355E2,0E0,0E0,0E0,0E0],"parents":[2147483647,0,0,1,1,2,2],"right_children":[2,4,6,-1,-1,-1,-1],"split_conditions":[4.4253415E-1,-5.082469E-1,1.5721002E0,-6.7337025E-3,-2.9049765E-3,4.127964E-3,1.4789922E-2],"split_indices":[10,10,10,0,0,0,0],"split_type":[0,0,0,0,0,0,0],"sum_hessian":[6.847E3,4.823E3,2.024E3,3.442E3,1.381E3,1.009E3,1.015E3],"tree_param":{"num_deleted":"0","num_feature":"254","num_nodes":"7","size_leaf_vector":"0"}},{"base_weights":[-5.3963486E-2,-2.687381E-1,4.8508218E-1,-3.2525462E-1,-1.146154E-1,2.1521388E-1,7.257469E-1],"categories":[],"categories_nodes":[],"categories_segments":[],"categories_sizes":[],"default_left":[1,1,1,0,0,0,0],"id":16,"left_children":[1,3,5,-1,-1,-1,-1],"loss_changes":[7.862458E2,4.222357E1,1.2536154E2,0E0,0E0,0E0,0E0],"parents":[2147483647,0,0,1,1,2,2],"right_children":[2,4,6,-1,-1,-1,-1],"split_conditions":[6.7669696E-1,-2.9302365E-1,1.5932016E0,-6.505092E-3,-2.292308E-3,4.3042777E-3,1.4514938E-2],"split_indices":[10,10,10,0,0,0,0],"split_type":[0,0,0,0,0,0,0],"sum_hessian":[6.787E3,4.854E3,1.933E3,3.55E3,1.304E3,9.13E2,1.02E3],"tree_param":{"num_deleted":"0","num_feature":"254","num_nodes":"7","size_leaf_vector":"0"}},{"base_weights":[-5.939657E-2,-2.69826E-1,4.518432E-1,-3.2252455E-1,-1.377636E-1,1.7947002E-1,6.9222736E-1],"categories":[],"categories_nodes":[],"categories_segments":[],"categories_sizes":[],"default_left":[1,1,1,0,0,0,0],"id":17,"left_children":[1,3,5,-1,-1,-1,-1],"loss_changes":[7.297431E2,3.33515E1,1.2925949E2,0E0,0E0,0E0,0E0],"parents":[2147483647,0,0,1,1,2,2],"right_children":[2,4,6,-1,-1,-1,-1],"split_conditions":[1.025435E-2,-4.403898E-1,1.0274191E0,-6.450491E-3,-2.755272E-3,3.5894003E-3,1.3844547E-2],"split_indices":[76,73,76,0,0,0,0],"split_type":[0,0,0,0,0,0,0],"sum_hessian":[6.779E3,4.803E3,1.976E3,3.431E3,1.372E3,9.28E2,1.048E3],"tree_param":{"num_deleted":"0","num_feature":"254","num_nodes":"7","size_leaf_vector":"0"}},{"base_weights":[-5.235823E-2,-2.6491633E-1,4.467199E-1,-3.1395274E-1,-1.3149905E-1,1.9384615E-1,6.969925E-1],"categories":[],"categories_nodes":[],"categories_segments":[],"categories_sizes":[],"default_left":[1,1,1,0,0,0,0],"id":18,"left_children":[1,3,5,-1,-1,-1,-1],"loss_changes":[7.2414777E2,3.1235413E1,1.2877277E2,0E0,0E0,0E0,0E0],"parents":[2147483647,0,0,1,1,2,2],"right_children":[2,4,6,-1,-1,-1,-1],"split_conditions":[-1.6161393E-2,-5.348242E-1,1.5640299E0,-6.2790546E-3,-2.629981E-3,3.876923E-3,1.393985E-2],"split_indices":[76,76,76,0,0,0,0],"split_type":[0,0,0,0,0,0,0],"sum_hessian":[6.822E3,4.785E3,2.037E3,3.497E3,1.288E3,1.015E3,1.022E3],"tree_param":{"num_deleted":"0","num_feature":"254","num_nodes":"7","size_leaf_vector":"0"}},{"base_weights":[-5.4818463E-2,-2.5295937E-1,4.5889163E-1,-3.0604416E-1,-1.0856827E-1,1.8058781E-1,6.661886E-1],"categories":[],"categories_nodes":[],"categories_segments":[],"categories_sizes":[],"default_left":[1,1,1,0,0,0,0],"id":19,"left_children":[1,3,5,-1,-1,-1,-1],"loss_changes":[6.8892285E2,3.7369263E1,1.08450226E2,0E0,0E0,0E0,0E0],"parents":[2147483647,0,0,1,1,2,2],"right_children":[2,4,6,-1,-1,-1,-1],"split_conditions":[2.835496E-1,-2.8669134E-1,1.0542917E0,-6.120883E-3,-2.1713653E-3,3.6117563E-3,1.3323772E-2],"split_indices":[76,10,76,0,0,0,0],"split_type":[0,0,0,0,0,0,0],"sum_hessian":[6.764E3,4.882E3,1.882E3,3.568E3,1.314E3,8.05E2,1.077E3],"tree_param":{"num_deleted":"0","num_feature":"254","num_nodes":"7","size_leaf_vector":"0"}},{"base_weights":[-5.256367E-2,-2.555281E-1,4.2359734E-1,-3.0590555E-1,-1.359072E-1,1.6296308E-1,6.4858866E-1],"categories":[],"categories_nodes":[],"categories_segments":[],"categories_sizes":[],"default_left":[1,1,1,0,0,0,0],"id":20,"left_children":[1,3,5,-1,-1,-1,-1],"loss_changes":[6.667684E2,2.9065552E1,1.207052E2,0E0,0E0,0E0,0E0],"parents":[2147483647,0,0,1,1,2,2],"right_children":[2,4,6,-1,-1,-1,-1],"split_conditions":[-2.7007967E-2,-5.116755E-1,9.5750076E-1,-6.118111E-3,-2.718144E-3,3.2592614E-3,1.2971773E-2],"split_indices":[76,73,76,0,0,0,0],"split_type":[0,0,0,0,0,0,0],"sum_hessian":[6.895E3,4.835E3,2.06E3,3.4E3,1.435E3,9.56E2,1.104E3],"tree_param":{"num_deleted":"0","num_feature":"254","num_nodes":"7","size_leaf_vector":"0"}},{"base_weights":[-5.2344006E-2,-2.5008333E-1,4.1815382E-1,-2.9925704E-1,-1.3162445E-1,1.8338753E-1,6.579329E-1],"categories":[],"categories_nodes":[],"categories_segments":[],"categories_sizes":[],"default_left":[1,1,1,0,0,0,0],"id":21,"left_children":[1,3,5,-1,-1,-1,-1],"loss_changes":[6.385286E2,2.8067902E1,1.1408783E2,0E0,0E0,0E0,0E0],"parents":[2147483647,0,0,1,1,2,2],"right_children":[2,4,6,-1,-1,-1,-1],"split_conditions":[4.3033165E-1,-5.3169745E-1,1.618199E0,-5.985141E-3,-2.632489E-3,3.6677506E-3,1.3158658E-2],"split_indices":[10,10,76,0,0,0,0],"split_type":[0,0,0,0,0,0,0],"sum_hessian":[6.859E3,4.83E3,2.029E3,3.411E3,1.419E3,1.027E3,1.002E3],"tree_param":{"num_deleted":"0","num_feature":"254","num_nodes":"7","size_leaf_vector":"0"}},{"base_weights":[-4.9602456E-2,-2.4623062E-1,4.0511858E-1,-2.9466242E-1,-1.352312E-1,1.5464401E-1,6.2177795E-1],"categories":[],"categories_nodes":[],"categories_segments":[],"categories_sizes":[],"default_left":[1,1,1,0,0,0,0],"id":22,"left_children":[1,3,5,-1,-1,-1,-1],"loss_changes":[6.068528E2,2.5391327E1,1.1100217E2,0E0,0E0,0E0,0E0],"parents":[2147483647,0,0,1,1,2,2],"right_children":[2,4,6,-1,-1,-1,-1],"split_conditions":[3.763659E-1,-5.6878924E-1,1.2228882E0,-5.893248E-3,-2.7046239E-3,3.0928801E-3,1.2435559E-2],"split_indices":[10,10,10,0,0,0,0],"split_type":[0,0,0,0,0,0,0],"sum_hessian":[6.783E3,4.736E3,2.047E3,3.295E3,1.441E3,9.51E2,1.096E3],"tree_param":{"num_deleted":"0","num_feature":"254","num_nodes":"7","size_leaf_vector":"0"}},{"base_weights":[-4.8467427E-2,-2.4110143E-1,4.0217885E-1,-2.8275308E-1,-1.1300591E-1,1.7697889E-1,6.3277745E-1],"categories":[],"categories_nodes":[],"categories_segments":[],"categories_sizes":[],"default_left":[1,1,1,0,0,0,0],"id":23,"left_children":[1,3,5,-1,-1,-1,-1],"loss_changes":[5.983134E2,2.5695312E1,1.0696121E2,0E0,0E0,0E0,0E0],"parents":[2147483647,0,0,1,1,2,2],"right_children":[2,4,6,-1,-1,-1,-1],"split_conditions":[4.321751E-1,-2.8177303E-1,1.618199E0,-5.6550615E-3,-2.260118E-3,3.5395776E-3,1.2655549E-2],"split_indices":[10,10,76,0,0,0,0],"split_type":[0,0,0,0,0,0,0],"sum_hessian":[6.888E3,4.826E3,2.062E3,3.64E3,1.186E3,1.045E3,1.017E3],"tree_param":{"num_deleted":"0","num_feature":"254","num_nodes":"7","size_leaf_vector":"0"}},{"base_weights":[-5.105638E-2,-2.3770063E-1,3.874203E-1,-2.83025E-1,-1.2977296E-1,1.4591226E-1,5.9665185E-1],"categories":[],"categories_nodes":[],"categories_segments":[],"categories_sizes":[],"default_left":[1,1,1,0,0,0,0],"id":24,"left_children":[1,3,5,-1,-1,-1,-1],"loss_changes":[5.59964E2,2.340207E1,1.0306094E2,0E0,0E0,0E0,0E0],"parents":[2147483647,0,0,1,1,2,2],"right_children":[2,4,6,-1,-1,-1,-1],"split_conditions":[-6.698118E-2,-5.6878924E-1,9.218582E-1,-5.6605E-3,-2.595459E-3,2.918245E-3,1.1933037E-2],"split_indices":[76,10,76,0,0,0,0],"split_type":[0,0,0,0,0,0,0],"sum_hessian":[6.838E3,4.797E3,2.041E3,3.376E3,1.421E3,9.49E2,1.092E3],"tree_param":{"num_deleted":"0","num_feature":"254","num_nodes":"7","size_leaf_vector":"0"}},{"base_weights":[-4.4232536E-2,-2.2241747E-1,4.1081625E-1,-2.7045193E-1,-8.55189E-2,1.7975737E-1,6.072261E-1],"categories":[],"categories_nodes":[],"categories_segments":[],"categories_sizes":[],"default_left":[1,1,1,0,0,0,0],"id":25,"left_children":[1,3,5,-1,-1,-1,-1],"loss_changes":[5.5697864E2,3.2412125E1,8.750552E1,0E0,0E0,0E0,0E0],"parents":[2147483647,0,0,1,1,2,2],"right_children":[2,4,6,-1,-1,-1,-1],"split_conditions":[7.352257E-1,-2.3224376E-1,1.6405599E0,-5.4090386E-3,-1.7103779E-3,3.5951473E-3,1.2144521E-2],"split_indices":[10,10,76,0,0,0,0],"split_type":[0,0,0,0,0,0,0],"sum_hessian":[6.865E3,4.934E3,1.931E3,3.651E3,1.283E3,8.89E2,1.042E3],"tree_param":{"num_deleted":"0","num_feature":"254","num_nodes":"7","size_leaf_vector":"0"}},{"base_weights":[-4.757539E-2,-2.2871158E-1,3.7132633E-1,-2.7227452E-1,-1.2864964E-1,1.393979E-1,5.6983984E-1],"categories":[],"categories_nodes":[],"categories_segments":[],"categories_sizes":[],"default_left":[1,1,1,0,0,0,0],"id":26,"left_children":[1,3,5,-1,-1,-1,-1],"loss_changes":[5.1576263E2,2.0613358E1,9.431711E1,0E0,0E0,0E0,0E0],"parents":[2147483647,0,0,1,1,2,2],"right_children":[2,4,6,-1,-1,-1,-1],"split_conditions":[3.3253306E-1,-5.88448E-1,8.893733E-1,-5.44549E-3,-2.5729926E-3,2.7879581E-3,1.1396796E-2],"split_indices":[10,10,76,0,0,0,0],"split_type":[0,0,0,0,0,0,0],"sum_hessian":[6.793E3,4.743E3,2.05E3,3.302E3,1.441E3,9.47E2,1.103E3],"tree_param":{"num_deleted":"0","num_feature":"254","num_nodes":"7","size_leaf_vector":"0"}},{"base_weights":[-4.6808504E-2,-2.2472937E-1,3.6404258E-1,-2.6652747E-1,-1.2541446E-1,1.5842862E-1,5.8421665E-1],"categories":[],"categories_nodes":[],"categories_segments":[],"categories_sizes":[],"default_left":[1,1,1,0,0,0,0],"id":27,"left_children":[1,3,5,-1,-1,-1,-1],"loss_changes":[4.987718E2,1.9696915E1,9.316342E1,0E0,0E0,0E0,0E0],"parents":[2147483647,0,0,1,1,2,2],"right_children":[2,4,6,-1,-1,-1,-1],"split_conditions":[3.1007108E-1,-5.6939167E-1,1.6405599E0,-5.3305496E-3,-2.5082892E-3,3.1685724E-3,1.1684333E-2],"split_indices":[10,10,76,0,0,0,0],"split_type":[0,0,0,0,0,0,0],"sum_hessian":[6.819E3,4.759E3,2.06E3,3.347E3,1.412E3,1.067E3,9.93E2],"tree_param":{"num_deleted":"0","num_feature":"254","num_nodes":"7","size_leaf_vector":"0"}},{"base_weights":[-4.580889E-2,-2.1016443E-1,3.7772432E-1,-2.549943E-1,-8.49643E-2,1.6893418E-1,5.74737E-1],"categories":[],"categories_nodes":[],"categories_segments":[],"categories_sizes":[],"default_left":[1,1,1,0,0,0,0],"id":28,"left_children":[1,3,5,-1,-1,-1,-1],"loss_changes":[4.7754434E2,2.7694626E1,7.870145E1,0E0,0E0,0E0,0E0],"parents":[2147483647,0,0,1,1,2,2],"right_children":[2,4,6,-1,-1,-1,-1],"split_conditions":[6.9895947E-1,-2.3224376E-1,1.6611384E0,-5.099886E-3,-1.6992859E-3,3.3786835E-3,1.149474E-2],"split_indices":[10,10,10,0,0,0,0],"split_type":[0,0,0,0,0,0,0],"sum_hessian":[6.856E3,4.94E3,1.916E3,3.636E3,1.304E3,9.32E2,9.84E2],"tree_param":{"num_deleted":"0","num_feature":"254","num_nodes":"7","size_leaf_vector":"0"}},{"base_weights":[-4.3677688E-2,-2.1606815E-1,3.501012E-1,-2.563705E-1,-1.22094154E-1,1.2886445E-1,5.384777E-1],"categories":[],"categories_nodes":[],"categories_segments":[],"categories_sizes":[],"default_left":[1,1,1,0,0,0,0],"id":29,"left_children":[1,3,5,-1,-1,-1,-1],"loss_changes":[4.5924893E2,1.7756989E1,8.571338E1,0E0,0E0,0E0,0E0],"parents":[2147483647,0,0,1,1,2,2],"right_children":[2,4,6,-1,-1,-1,-1],"split_conditions":[-1.1748522E-1,-5.940113E-1,1.1661773E0,-5.1274104E-3,-2.441883E-3,2.577289E-3,1.0769554E-2],"split_indices":[76,10,10,0,0,0,0],"split_type":[0,0,0,0,0,0,0],"sum_hessian":[6.761E3,4.703E3,2.058E3,3.289E3,1.414E3,9.48E2,1.11E3],"tree_param":{"num_deleted":"0","num_feature":"254","num_nodes":"7","size_leaf_vector":"0"}},{"base_weights":[-4.328684E-2,-2.1246237E-1,3.432553E-1,-2.5122213E-1,-1.2095411E-1,1.2716953E-1,5.319539E-1],"categories":[],"categories_nodes":[],"categories_segments":[],"categories_sizes":[],"default_left":[1,1,1,0,0,0,0],"id":30,"left_children":[1,3,5,-1,-1,-1,-1],"loss_changes":[4.452792E2,1.6737076E1,8.439142E1,0E0,0E0,0E0,0E0],"parents":[2147483647,0,0,1,1,2,2],"right_children":[2,4,6,-1,-1,-1,-1],"split_conditions":[2.978413E-1,-5.8845866E-1,9.0475595E-1,-5.0244424E-3,-2.4190822E-3,2.5433907E-3,1.0639077E-2],"split_indices":[10,10,76,0,0,0,0],"split_type":[0,0,0,0,0,0,0],"sum_hessian":[6.805E3,4.734E3,2.071E3,3.323E3,1.411E3,9.67E2,1.104E3],"tree_param":{"num_deleted":"0","num_feature":"254","num_nodes":"7","size_leaf_vector":"0"}},{"base_weights":[-3.9556876E-2,-1.5649818E-1,5.0121725E-1,-2.1343377E-1,9.826756E-2,2.9762185E-1,5.445249E-1],"categories":[],"categories_nodes":[],"categories_segments":[],"categories_sizes":[],"default_left":[1,1,1,0,0,0,0],"id":31,"left_children":[1,3,5,-1,-1,-1,-1],"loss_changes":[4.3106628E2,8.13293E1,1.0362366E1,0E0,0E0,0E0,0E0],"parents":[2147483647,0,0,1,1,2,2],"right_children":[2,4,6,-1,-1,-1,-1],"split_conditions":[5.0686544E-1,3.420032E-2,1.7456551E0,-4.2686756E-3,1.9653512E-3,5.952437E-3,1.0890498E-2],"split_indices":[76,10,10,0,0,0,0],"split_type":[0,0,0,0,0,0,0],"sum_hessian":[6.812E3,5.602E3,1.21E3,4.579E3,1.023E3,2.15E2,9.95E2],"tree_param":{"num_deleted":"0","num_feature":"254","num_nodes":"7","size_leaf_vector":"0"}},{"base_weights":[-4.1349947E-2,-2.0456177E-1,3.2875118E-1,-2.4167469E-1,-1.133207E-1,1.20201774E-1,5.07559E-1],"categories":[],"categories_nodes":[],"categories_segments":[],"categories_sizes":[],"default_left":[1,1,1,0,0,0,0],"id":32,"left_children":[1,3,5,-1,-1,-1,-1],"loss_changes":[4.1191455E2,1.5968826E1,7.7702774E1,0E0,0E0,0E0,0E0],"parents":[2147483647,0,0,1,1,2,2],"right_children":[2,4,6,-1,-1,-1,-1],"split_conditions":[2.945998E-1,-5.618328E-1,8.5048354E-1,-4.833494E-3,-2.266414E-3,2.4040355E-3,1.01511795E-2],"split_indices":[10,10,76,0,0,0,0],"split_type":[0,0,0,0,0,0,0],"sum_hessian":[6.815E3,4.73E3,2.085E3,3.36E3,1.37E3,9.64E2,1.121E3],"tree_param":{"num_deleted":"0","num_feature":"254","num_nodes":"7","size_leaf_vector":"0"}},{"base_weights":[-4.079903E-2,-2.0063604E-1,3.185309E-1,-2.3725094E-1,-1.1404081E-1,1.4269896E-1,5.2304226E-1],"categories":[],"categories_nodes":[],"categories_segments":[],"categories_sizes":[],"default_left":[1,1,1,0,0,0,0],"id":33,"left_children":[1,3,5,-1,-1,-1,-1],"loss_changes":[3.9211636E2,1.4927307E1,7.543785E1,0E0,0E0,0E0,0E0],"parents":[2147483647,0,0,1,1,2,2],"right_children":[2,4,6,-1,-1,-1,-1],"split_conditions":[2.6537237E-1,-6.0096073E-1,1.7479424E0,-4.7450187E-3,-2.2808162E-3,2.8539791E-3,1.0460845E-2],"split_indices":[10,10,76,0,0,0,0],"split_type":[0,0,0,0,0,0,0],"sum_hessian":[6.823E3,4.723E3,2.1E3,3.317E3,1.406E3,1.131E3,9.69E2],"tree_param":{"num_deleted":"0","num_feature":"254","num_nodes":"7","size_leaf_vector":"0"}},{"base_weights":[-3.96881E-2,-1.8568121E-1,3.404389E-1,-2.2596072E-1,-6.904597E-2,1.5419899E-1,5.128645E-1],"categories":[],"categories_nodes":[],"categories_segments":[],"categories_sizes":[],"default_left":[1,1,1,0,0,0,0],"id":34,"left_children":[1,3,5,-1,-1,-1,-1],"loss_changes":[3.8277084E2,2.3378983E1,6.130519E1,0E0,0E0,0E0,0E0],"parents":[2147483647,0,0,1,1,2,2],"right_children":[2,4,6,-1,-1,-1,-1],"split_conditions":[7.352257E-1,-2.1508445E-1,1.7185493E0,-4.5192144E-3,-1.3809194E-3,3.0839797E-3,1.0257289E-2],"split_indices":[10,10,10,0,0,0,0],"split_type":[0,0,0,0,0,0,0],"sum_hessian":[6.893E3,4.981E3,1.912E3,3.701E3,1.28E3,9.21E2,9.91E2],"tree_param":{"num_deleted":"0","num_feature":"254","num_nodes":"7","size_leaf_vector":"0"}},{"base_weights":[-3.7766997E-2,-1.4611143E-1,4.646111E-1,-1.9766562E-1,9.096985E-2,2.8433183E-1,5.0400233E-1],"categories":[],"categories_nodes":[],"categories_segments":[],"categories_sizes":[],"default_left":[1,1,1,0,0,0,0],"id":35,"left_children":[1,3,5,-1,-1,-1,-1],"loss_changes":[3.7368802E2,6.905662E1,8.362915E0,0E0,0E0,0E0,0E0],"parents":[2147483647,0,0,1,1,2,2],"right_children":[2,4,6,-1,-1,-1,-1],"split_conditions":[9.094576E-1,-3.347252E-1,1.9510717E0,-3.953312E-3,1.819397E-3,5.6866365E-3,1.0080046E-2],"split_indices":[10,76,76,0,0,0,0],"split_type":[0,0,0,0,0,0,0],"sum_hessian":[6.861E3,5.645E3,1.216E3,4.637E3,1.008E3,2.21E2,9.95E2],"tree_param":{"num_deleted":"0","num_feature":"254","num_nodes":"7","size_leaf_vector":"0"}},{"base_weights":[-3.7557058E-2,-1.4170629E-1,4.579534E-1,-1.9426815E-1,8.762907E-2,2.8812018E-1,4.94723E-1],"categories":[],"categories_nodes":[],"categories_segments":[],"categories_sizes":[],"default_left":[1,1,1,0,0,0,0],"id":36,"left_children":[1,3,5,-1,-1,-1,-1],"loss_changes":[3.5596027E2,6.873148E1,7.19606E0,0E0,0E0,0E0,0E0],"parents":[2147483647,0,0,1,1,2,2],"right_children":[2,4,6,-1,-1,-1,-1],"split_conditions":[5.4921854E-1,-5.9430446E-3,2.0010276E0,-3.885363E-3,1.7525814E-3,5.7624034E-3,9.8944595E-3],"split_indices":[76,10,76,0,0,0,0],"split_type":[0,0,0,0,0,0,0],"sum_hessian":[6.893E3,5.697E3,1.196E3,4.635E3,1.062E3,2.16E2,9.8E2],"tree_param":{"num_deleted":"0","num_feature":"254","num_nodes":"7","size_leaf_vector":"0"}},{"base_weights":[-3.6378752E-2,-1.7594169E-1,3.2101607E-1,-2.136491E-1,-6.4357765E-2,1.4700696E-1,4.8280078E-1],"categories":[],"categories_nodes":[],"categories_segments":[],"categories_sizes":[],"default_left":[1,1,1,0,0,0,0],"id":37,"left_children":[1,3,5,-1,-1,-1,-1],"loss_changes":[3.402882E2,2.0614685E1,5.3797302E1,0E0,0E0,0E0,0E0],"parents":[2147483647,0,0,1,1,2,2],"right_children":[2,4,6,-1,-1,-1,-1],"split_conditions":[3.2345617E-1,-2.1508445E-1,1.7498629E0,-4.272982E-3,-1.2871553E-3,2.940139E-3,9.656016E-3],"split_indices":[76,10,76,0,0,0,0],"split_type":[0,0,0,0,0,0,0],"sum_hessian":[6.818E3,4.904E3,1.914E3,3.664E3,1.24E3,9.24E2,9.9E2],"tree_param":{"num_deleted":"0","num_feature":"254","num_nodes":"7","size_leaf_vector":"0"}},{"base_weights":[-3.5120405E-2,-1.8145458E-1,2.9273513E-1,-2.1652797E-1,-9.988863E-2,1.0704974E-1,4.5009276E-1],"categories":[],"categories_nodes":[],"categories_segments":[],"categories_sizes":[],"default_left":[1,1,1,0,0,0,0],"id":38,"left_children":[1,3,5,-1,-1,-1,-1],"loss_changes":[3.2615433E2,1.3402481E1,6.1205124E1,0E0,0E0,0E0,0E0],"parents":[2147483647,0,0,1,1,2,2],"right_children":[2,4,6,-1,-1,-1,-1],"split_conditions":[-1.2648153E-1,-6.2229013E-1,8.179971E-1,-4.330559E-3,-1.9977726E-3,2.1409949E-3,9.001855E-3],"split_indices":[76,10,76,0,0,0,0],"split_type":[0,0,0,0,0,0,0],"sum_hessian":[6.794E3,4.698E3,2.096E3,3.283E3,1.415E3,9.63E2,1.133E3],"tree_param":{"num_deleted":"0","num_feature":"254","num_nodes":"7","size_leaf_vector":"0"}},{"base_weights":[-3.4472242E-2,-1.3386235E-1,4.3123502E-1,-1.8215133E-1,8.515473E-2,2.5909603E-1,4.6491265E-1],"categories":[],"categories_nodes":[],"categories_segments":[],"categories_sizes":[],"default_left":[1,1,1,0,0,0,0],"id":39,"left_children":[1,3,5,-1,-1,-1,-1],"loss_changes":[3.1921594E2,6.0135063E1,6.7911224E0,0E0,0E0,0E0,0E0],"parents":[2147483647,0,0,1,1,2,2],"right_children":[2,4,6,-1,-1,-1,-1],"split_conditions":[9.1696346E-1,3.4190334E-2,1.773812E0,-3.6430266E-3,1.7030945E-3,5.1819202E-3,9.298253E-3],"split_indices":[10,10,10,0,0,0,0],"split_type":[0,0,0,0,0,0,0],"sum_hessian":[6.892E3,5.681E3,1.211E3,4.655E3,1.026E3,2.01E2,1.01E3],"tree_param":{"num_deleted":"0","num_feature":"254","num_nodes":"7","size_leaf_vector":"0"}},{"base_weights":[-3.2184713E-2,-1.3131632E-1,4.1866082E-1,-1.7872617E-1,8.124959E-2,2.599084E-1,4.5609188E-1],"categories":[],"categories_nodes":[],"categories_segments":[],"categories_sizes":[],"default_left":[1,1,1,0,0,0,0],"id":40,"left_children":[1,3,5,-1,-1,-1,-1],"loss_changes":[3.0844727E2,5.7038696E1,7.155075E0,0E0,0E0,0E0,0E0],"parents":[2147483647,0,0,1,1,2,2],"right_children":[2,4,6,-1,-1,-1,-1],"split_conditions":[5.092939E-1,-3.2796255E-1,1.9897782E0,-3.5745231E-3,1.6249917E-3,5.198168E-3,9.121837E-3],"split_indices":[76,76,76,0,0,0,0],"split_type":[0,0,0,0,0,0,0],"sum_hessian":[6.897E3,5.655E3,1.242E3,4.624E3,1.031E3,2.4E2,1.002E3],"tree_param":{"num_deleted":"0","num_feature":"254","num_nodes":"7","size_leaf_vector":"0"}},{"base_weights":[-3.285873E-2,-1.7037196E-1,2.7543667E-1,-2.0486723E-1,-9.119636E-2,1.02184355E-1,4.2551002E-1],"categories":[],"categories_nodes":[],"categories_segments":[],"categories_sizes":[],"default_left":[1,1,1,0,0,0,0],"id":41,"left_children":[1,3,5,-1,-1,-1,-1],"loss_changes":[2.8998877E2,1.2881119E1,5.477423E1,0E0,0E0,0E0,0E0],"parents":[2147483647,0,0,1,1,2,2],"right_children":[2,4,6,-1,-1,-1,-1],"split_conditions":[-1.1059028E-1,-6.180421E-1,8.4101987E-1,-4.0973444E-3,-1.8239272E-3,2.043687E-3,8.5102E-3],"split_indices":[76,10,76,0,0,0,0],"split_type":[0,0,0,0,0,0,0],"sum_hessian":[6.836E3,4.728E3,2.108E3,3.291E3,1.437E3,9.8E2,1.128E3],"tree_param":{"num_deleted":"0","num_feature":"254","num_nodes":"7","size_leaf_vector":"0"}},{"base_weights":[-3.3549696E-2,-1.6738088E-1,2.6881802E-1,-2.0117843E-1,-9.020852E-2,9.6317306E-2,4.0485355E-1],"categories":[],"categories_nodes":[],"categories_segments":[],"categories_sizes":[],"default_left":[1,1,1,0,0,0,0],"id":42,"left_children":[1,3,5,-1,-1,-1,-1],"loss_changes":[2.759078E2,1.2290237E1,4.9013367E1,0E0,0E0,0E0,0E0],"parents":[2147483647,0,0,1,1,2,2],"right_children":[2,4,6,-1,-1,-1,-1],"split_conditions":[2.919926E-1,-5.932795E-1,1.0719655E0,-4.0235687E-3,-1.8041704E-3,1.9263461E-3,8.097071E-3],"split_indices":[73,73,73,0,0,0,0],"split_type":[0,0,0,0,0,0,0],"sum_hessian":[6.814E3,4.724E3,2.09E3,3.283E3,1.441E3,9.23E2,1.167E3],"tree_param":{"num_deleted":"0","num_feature":"254","num_nodes":"7","size_leaf_vector":"0"}},{"base_weights":[-3.2404937E-2,-1.2402724E-1,3.952695E-1,-1.6891375E-1,7.5486295E-2,2.3834167E-1,4.287562E-1],"categories":[],"categories_nodes":[],"categories_segments":[],"categories_sizes":[],"default_left":[1,1,1,0,0,0,0],"id":43,"left_children":[1,3,5,-1,-1,-1,-1],"loss_changes":[2.6960916E2,5.076718E1,6.175171E0,0E0,0E0,0E0,0E0],"parents":[2147483647,0,0,1,1,2,2],"right_children":[2,4,6,-1,-1,-1,-1],"split_conditions":[5.092939E-1,-8.698707E-3,1.9162459E0,-3.3782749E-3,1.5097258E-3,4.7668335E-3,8.575124E-3],"split_indices":[76,10,76,0,0,0,0],"split_type":[0,0,0,0,0,0,0],"sum_hessian":[6.876E3,5.664E3,1.212E3,4.624E3,1.04E3,2.16E2,9.96E2],"tree_param":{"num_deleted":"0","num_feature":"254","num_nodes":"7","size_leaf_vector":"0"}},{"base_weights":[-3.3038262E-2,-1.534719E-1,2.7933562E-1,-1.8714494E-1,-5.1262792E-2,1.2696418E-1,4.2058697E-1],"categories":[],"categories_nodes":[],"categories_segments":[],"categories_sizes":[],"default_left":[1,1,1,0,0,0,0],"id":44,"left_children":[1,3,5,-1,-1,-1,-1],"loss_changes":[2.560544E2,1.6886406E1,4.065715E1,0E0,0E0,0E0,0E0],"parents":[2147483647,0,0,1,1,2,2],"right_children":[2,4,6,-1,-1,-1,-1],"split_conditions":[3.2345617E-1,-1.9659835E-1,1.7498629E0,-3.7428986E-3,-1.0252558E-3,2.5392836E-3,8.411739E-3],"split_indices":[76,10,76,0,0,0,0],"split_type":[0,0,0,0,0,0,0],"sum_hessian":[6.802E3,4.91E3,1.892E3,3.692E3,1.218E3,9.12E2,9.8E2],"tree_param":{"num_deleted":"0","num_feature":"254","num_nodes":"7","size_leaf_vector":"0"}},{"base_weights":[-2.8999645E-2,-1.17475316E-1,3.8376364E-1,-1.6210088E-1,7.329229E-2,2.4089505E-1,4.1412902E-1],"categories":[],"categories_nodes":[],"categories_segments":[],"categories_sizes":[],"default_left":[1,1,1,0,0,0,0],"id":45,"left_children":[1,3,5,-1,-1,-1,-1],"loss_changes":[2.492993E2,4.787597E1,5.028076E0,0E0,0E0,0E0,0E0],"parents":[2147483647,0,0,1,1,2,2],"right_children":[2,4,6,-1,-1,-1,-1],"split_conditions":[9.3743265E-1,-1.7061733E-2,1.8435268E0,-3.2420175E-3,1.4658459E-3,4.8179007E-3,8.28258E-3],"split_indices":[10,10,10,0,0,0,0],"split_type":[0,0,0,0,0,0,0],"sum_hessian":[6.822E3,5.619E3,1.203E3,4.554E3,1.065E3,2.14E2,9.89E2],"tree_param":{"num_deleted":"0","num_feature":"254","num_nodes":"7","size_leaf_vector":"0"}},{"base_weights":[-3.0410592E-2,-1.1700115E-1,3.761106E-1,-1.5866444E-1,7.4246004E-2,2.3751757E-1,4.060507E-1],"categories":[],"categories_nodes":[],"categories_segments":[],"categories_sizes":[],"default_left":[1,1,1,0,0,0,0],"id":46,"left_children":[1,3,5,-1,-1,-1,-1],"loss_changes":[2.4054536E2,4.490722E1,4.786499E0,0E0,0E0,0E0,0E0],"parents":[2147483647,0,0,1,1,2,2],"right_children":[2,4,6,-1,-1,-1,-1],"split_conditions":[5.872451E-1,-3.212214E-1,2.011357E0,-3.1732887E-3,1.48492E-3,4.7503514E-3,8.121014E-3],"split_indices":[76,76,76,0,0,0,0],"split_type":[0,0,0,0,0,0,0],"sum_hessian":[6.829E3,5.631E3,1.198E3,4.624E3,1.007E3,2.16E2,9.82E2],"tree_param":{"num_deleted":"0","num_feature":"254","num_nodes":"7","size_leaf_vector":"0"}},{"base_weights":[-2.9527122E-2,-1.1352618E-1,3.694828E-1,-1.5524396E-1,7.1230285E-2,2.3313566E-1,3.990219E-1],"categories":[],"categories_nodes":[],"categories_segments":[],"categories_sizes":[],"default_left":[1,1,1,0,0,0,0],"id":47,"left_children":[1,3,5,-1,-1,-1,-1],"loss_changes":[2.2856558E2,4.3439194E1,4.590637E0,0E0,0E0,0E0,0E0],"parents":[2147483647,0,0,1,1,2,2],"right_children":[2,4,6,-1,-1,-1,-1],"split_conditions":[5.872451E-1,-3.2865798E-1,2.0331526E0,-3.1048793E-3,1.4246056E-3,4.662713E-3,7.980438E-3],"split_indices":[76,76,76,0,0,0,0],"split_type":[0,0,0,0,0,0,0],"sum_hessian":[6.815E3,5.631E3,1.184E3,4.594E3,1.037E3,2.14E2,9.7E2],"tree_param":{"num_deleted":"0","num_feature":"254","num_nodes":"7","size_leaf_vector":"0"}},{"base_weights":[-2.8907703E-2,-1.4076278E-1,2.5920042E-1,-1.7469239E-1,-4.6390772E-2,1.18175454E-1,3.8881382E-1],"categories":[],"categories_nodes":[],"categories_segments":[],"categories_sizes":[],"default_left":[1,1,1,0,0,0,0],"id":48,"left_children":[1,3,5,-1,-1,-1,-1],"loss_changes":[2.2066238E2,1.577607E1,3.491188E1,0E0,0E0,0E0,0E0],"parents":[2147483647,0,0,1,1,2,2],"right_children":[2,4,6,-1,-1,-1,-1],"split_conditions":[3.3660904E-1,-4.9347347E-1,1.7498629E0,-3.4938478E-3,-9.278154E-4,2.363509E-3,7.776276E-3],"split_indices":[76,76,76,0,0,0,0],"split_type":[0,0,0,0,0,0,0],"sum_hessian":[6.843E3,4.93E3,1.913E3,3.625E3,1.305E3,9.18E2,9.95E2],"tree_param":{"num_deleted":"0","num_feature":"254","num_nodes":"7","size_leaf_vector":"0"}},{"base_weights":[-2.8891198E-2,-1.4607038E-1,2.3445699E-1,-1.7744829E-1,-7.653272E-2,8.62307E-2,3.6193374E-1],"categories":[],"categories_nodes":[],"categories_segments":[],"categories_sizes":[],"default_left":[1,1,1,0,0,0,0],"id":49,"left_children":[1,3,5,-1,-1,-1,-1],"loss_changes":[2.1203844E2,1.0348007E1,3.992025E1,0E0,0E0,0E0,0E0],"parents":[2147483647,0,0,1,1,2,2],"right_children":[2,4,6,-1,-1,-1,-1],"split_conditions":[2.6537237E-1,-6.552915E-1,1.1340485E0,-3.5489656E-3,-1.5306544E-3,1.7246141E-3,7.2386744E-3],"split_indices":[10,10,10,0,0,0,0],"split_type":[0,0,0,0,0,0,0],"sum_hessian":[6.867E3,4.753E3,2.114E3,3.273E3,1.48E3,9.79E2,1.135E3],"tree_param":{"num_deleted":"0","num_feature":"254","num_nodes":"7","size_leaf_vector":"0"}}]},"name":"gbtree"},"learner_model_param":{"base_score":"5E-1","boost_from_average":"1","num_class":"0","num_feature":"254","num_target":"1"},"objective":{"name":"reg:squarederror","reg_loss_param":{"scale_pos_weight":"1"}}},"version":[1,7,6]}